<?xml version="1.0"?>
<opencv_storage>
<PlateDetector type_id="opencv-haar-classifier">
  <size>
    24 24</size>
  <stages>
    <_>
      <trees>
        <_>
          <_>
            <feature>
              <rects>
                <_>
                  1 6 20 8 -1.</_>
                <_>
                  1 10 20 4 2.</_></rects>
              <tilted>0</tilted></feature>
            <threshold>0.0686232075095177</threshold>
            <left_val>-0.9684209823608398</left_val>
            <right_val>0.8761907219886780</right_val></_></_>
        <_>
          <_>
            <feature>
              <rects>
                <_>
                  14 1 8 5 -1.</_>
                <_>
                  16 3 4 5 2.</_></rects>
              <tilted>1</tilted></feature>
            <threshold>-3.0468329787254333e-003</threshold>
            <left_val>0.2852854132652283</left_val>
            <right_val>-0.8581401109695435</right_val></_></_></trees>
      <stage_threshold>-0.6831356287002564</stage_threshold>
      <parent>-1</parent>
      <next>-1</next></_>
    <_>
      <trees>
        <_>
          <_>
            <feature>
              <rects>
                <_>
                  0 0 6 12 -1.</_>
                <_>
                  2 4 2 4 9.</_></rects>
              <tilted>0</tilted></feature>
            <threshold>0.0431593395769596</threshold>
            <left_val>-1.</left_val>
            <right_val>1.</right_val></_></_></trees>
      <stage_threshold>1.</stage_threshold>
      <parent>0</parent>
      <next>-1</next></_>
    <_>
      <trees>
        <_>
          <_>
            <feature>
              <rects>
                <_>
                  0 0 12 4 -1.</_>
                <_>
                  0 0 6 2 2.</_>
                <_>
                  6 2 6 2 2.</_></rects>
              <tilted>0</tilted></feature>
            <threshold>0.0124940704554319</threshold>
            <left_val>-1.</left_val>
            <right_val>1.</right_val></_></_></trees>
      <stage_threshold>1.</stage_threshold>
      <parent>1</parent>
      <next>-1</next></_>
    <_>
      <trees>
        <_>
          <_>
            <feature>
              <rects>
                <_>
                  0 17 18 3 -1.</_>
                <_>
                  6 18 6 1 9.</_></rects>
              <tilted>0</tilted></feature>
            <threshold>0.0427213013172150</threshold>
            <left_val>-1.</left_val>
            <right_val>1.</right_val></_></_></trees>
      <stage_threshold>1.</stage_threshold>
      <parent>2</parent>
      <next>-1</next></_>
    <_>
      <trees>
        <_>
          <_>
            <feature>
              <rects>
                <_>
                  0 0 2 12 -1.</_>
                <_>
                  0 0 1 6 2.</_>
                <_>
                  1 6 1 6 2.</_></rects>
              <tilted>0</tilted></feature>
            <threshold>6.3727732049301267e-004</threshold>
            <left_val>-1.</left_val>
            <right_val>1.</right_val></_></_></trees>
      <stage_threshold>1.</stage_threshold>
      <parent>3</parent>
      <next>-1</next></_>
    <_>
      <trees>
        <_>
          <_>
            <feature>
              <rects>
                <_>
                  0 0 2 6 -1.</_>
                <_>
                  0 0 1 3 2.</_>
                <_>
                  1 3 1 3 2.</_></rects>
              <tilted>0</tilted></feature>
            <threshold>9.3501381343230605e-004</threshold>
            <left_val>-1.</left_val>
            <right_val>1.</right_val></_></_>
        <_>
          <_>
            <feature>
              <rects>
                <_>
                  22 0 2 4 -1.</_>
                <_>
                  23 0 1 2 2.</_>
                <_>
                  22 2 1 2 2.</_></rects>
              <tilted>0</tilted></feature>
            <threshold>4.6612758887931705e-004</threshold>
            <left_val>-1.</left_val>
            <right_val>1.</right_val></_></_>
        <_>
          <_>
            <feature>
              <rects>
                <_>
                  0 0 2 1 -1.</_>
                <_>
                  1 0 1 1 2.</_></rects>
              <tilted>0</tilted></feature>
            <threshold>0.</threshold>
            <left_val>0.</left_val>
            <right_val>-1.</right_val></_></_>
        <_>
          <_>
            <feature>
              <rects>
                <_>
                  22 0 2 1 -1.</_>
                <_>
                  22 0 1 1 2.</_></rects>
              <tilted>0</tilted></feature>
            <threshold>2.0230810332577676e-004</threshold>
            <left_val>-0.9546514153480530</left_val>
            <right_val>1.</right_val></_></_>
        <_>
          <_>
            <feature>
              <rects>
                <_>
                  0 0 2 1 -1.</_>
                <_>
                  1 0 1 1 2.</_></rects>
              <tilted>0</tilted></feature>
            <threshold>2.5425141211599112e-004</threshold>
            <left_val>-1.</left_val>
            <right_val>1.</right_val></_></_>
        <_>
          <_>
            <feature>
              <rects>
                <_>
                  22 0 2 1 -1.</_>
                <_>
                  22 0 1 1 2.</_></rects>
              <tilted>0</tilted></feature>
            <threshold>0.</threshold>
            <left_val>0.</left_val>
            <right_val>-1.</right_val></_></_>
        <_>
          <_>
            <feature>
              <rects>
                <_>
                  0 0 2 1 -1.</_>
                <_>
                  1 0 1 1 2.</_></rects>
              <tilted>0</tilted></feature>
            <threshold>-1.7641770682530478e-005</threshold>
            <left_val>1.</left_val>
            <right_val>-1.</right_val></_></_>
        <_>
          <_>
            <feature>
              <rects>
                <_>
                  22 0 2 4 -1.</_>
                <_>
                  23 0 1 2 2.</_>
                <_>
                  22 2 1 2 2.</_></rects>
              <tilted>0</tilted></feature>
            <threshold>4.6612758887931705e-004</threshold>
            <left_val>-1.</left_val>
            <right_val>1.</right_val></_></_>
        <_>
          <_>
            <feature>
              <rects>
                <_>
                  0 0 2 1 -1.</_>
                <_>
                  1 0 1 1 2.</_></rects>
              <tilted>0</tilted></feature>
            <threshold>0.</threshold>
            <left_val>0.</left_val>
            <right_val>-1.</right_val></_></_>
        <_>
          <_>
            <feature>
              <rects>
                <_>
                  22 0 2 1 -1.</_>
                <_>
                  22 0 1 1 2.</_></rects>
              <tilted>0</tilted></feature>
            <threshold>2.0230810332577676e-004</threshold>
            <left_val>-0.8863136172294617</left_val>
            <right_val>1.</right_val></_></_>
        <_>
          <_>
            <feature>
              <rects>
                <_>
                  0 0 2 1 -1.</_>
                <_>
                  1 0 1 1 2.</_></rects>
              <tilted>0</tilted></feature>
            <threshold>2.5425141211599112e-004</threshold>
            <left_val>-1.</left_val>
            <right_val>1.</right_val></_></_>
        <_>
          <_>
            <feature>
              <rects>
                <_>
                  22 0 2 1 -1.</_>
                <_>
                  22 0 1 1 2.</_></rects>
              <tilted>0</tilted></feature>
            <threshold>0.</threshold>
            <left_val>0.</left_val>
            <right_val>-1.</right_val></_></_>
        <_>
          <_>
            <feature>
              <rects>
                <_>
                  0 0 1 2 -1.</_>
                <_>
                  0 1 1 1 2.</_></rects>
              <tilted>0</tilted></feature>
            <threshold>-6.7038717679679394e-004</threshold>
            <left_val>1.</left_val>
            <right_val>-1.</right_val></_></_>
        <_>
          <_>
            <feature>
              <rects>
                <_>
                  19 0 5 4 -1.</_>
                <_>
                  19 1 5 2 2.</_></rects>
              <tilted>0</tilted></feature>
            <threshold>-4.7279940918087959e-003</threshold>
            <left_val>1.</left_val>
            <right_val>-1.</right_val></_></_></trees>
      <stage_threshold>0.1590345948934555</stage_threshold>
      <parent>4</parent>
      <next>-1</next></_>
    <_>
      <trees>
        <_>
          <_>
            <feature>
              <rects>
                <_>
                  0 0 16 12 -1.</_>
                <_>
                  0 0 8 6 2.</_>
                <_>
                  8 6 8 6 2.</_></rects>
              <tilted>0</tilted></feature>
            <threshold>0.0181441009044647</threshold>
            <left_val>-1.</left_val>
            <right_val>0.9999998807907105</right_val></_></_></trees>
      <stage_threshold>0.9999998807907105</stage_threshold>
      <parent>5</parent>
      <next>-1</next></_>
    <_>
      <trees>
        <_>
          <_>
            <feature>
              <rects>
                <_>
                  0 0 4 19 -1.</_>
                <_>
                  2 0 2 19 2.</_></rects>
              <tilted>0</tilted></feature>
            <threshold>0.0206519402563572</threshold>
            <left_val>-1.</left_val>
            <right_val>0.9999998807907105</right_val></_></_></trees>
      <stage_threshold>0.9999998807907105</stage_threshold>
      <parent>6</parent>
      <next>-1</next></_></stages></PlateDetector>
</opencv_storage>
