<?xml version="1.0"?>
<opencv_storage>
<PlateDetector type_id="opencv-haar-classifier">
  <size>
    24 24</size>
  <stages>
    <_>
      <trees>
        <_>
          <_>
            <feature>
              <rects>
                <_>
                  0 0 6 6 -1.</_>
                <_>
                  0 0 3 3 2.</_>
                <_>
                  3 3 3 3 2.</_></rects>
              <tilted>0</tilted></feature>
            <threshold>0.0120784295722842</threshold>
            <left_val>-1.</left_val>
            <right_val>1.</right_val></_></_></trees>
      <stage_threshold>1.</stage_threshold>
      <parent>-1</parent>
      <next>-1</next></_>
    <_>
      <trees>
        <_>
          <_>
            <feature>
              <rects>
                <_>
                  0 6 9 8 -1.</_>
                <_>
                  3 6 3 8 3.</_></rects>
              <tilted>0</tilted></feature>
            <threshold>0.0312860198318958</threshold>
            <left_val>-1.</left_val>
            <right_val>1.</right_val></_></_></trees>
      <stage_threshold>1.</stage_threshold>
      <parent>0</parent>
      <next>-1</next></_>
    <_>
      <trees>
        <_>
          <_>
            <feature>
              <rects>
                <_>
                  7 11 12 1 -1.</_>
                <_>
                  11 15 4 1 3.</_></rects>
              <tilted>1</tilted></feature>
            <threshold>0.0109546901658177</threshold>
            <left_val>-1.</left_val>
            <right_val>0.8947367072105408</right_val></_></_></trees>
      <stage_threshold>0.8947367072105408</stage_threshold>
      <parent>1</parent>
      <next>-1</next></_>
    <_>
      <trees>
        <_>
          <_>
            <feature>
              <rects>
                <_>
                  0 0 12 8 -1.</_>
                <_>
                  0 0 6 4 2.</_>
                <_>
                  6 4 6 4 2.</_></rects>
              <tilted>0</tilted></feature>
            <threshold>0.0273435302078724</threshold>
            <left_val>-1.</left_val>
            <right_val>1.</right_val></_></_></trees>
      <stage_threshold>1.</stage_threshold>
      <parent>2</parent>
      <next>-1</next></_>
    <_>
      <trees>
        <_>
          <_>
            <feature>
              <rects>
                <_>
                  0 0 2 24 -1.</_>
                <_>
                  0 0 1 12 2.</_>
                <_>
                  1 12 1 12 2.</_></rects>
              <tilted>0</tilted></feature>
            <threshold>1.4416070189327002e-003</threshold>
            <left_val>-1.</left_val>
            <right_val>0.9999998807907105</right_val></_></_></trees>
      <stage_threshold>0.9999998807907105</stage_threshold>
      <parent>3</parent>
      <next>-1</next></_>
    <_>
      <trees>
        <_>
          <_>
            <feature>
              <rects>
                <_>
                  0 0 2 1 -1.</_>
                <_>
                  1 0 1 1 2.</_></rects>
              <tilted>0</tilted></feature>
            <threshold>-9.9964221590198576e-005</threshold>
            <left_val>1.</left_val>
            <right_val>-0.9999998211860657</right_val></_></_></trees>
      <stage_threshold>1.</stage_threshold>
      <parent>4</parent>
      <next>-1</next></_>
    <_>
      <trees>
        <_>
          <_>
            <feature>
              <rects>
                <_>
                  0 0 19 16 -1.</_>
                <_>
                  0 8 19 8 2.</_></rects>
              <tilted>0</tilted></feature>
            <threshold>0.1582279056310654</threshold>
            <left_val>-1.</left_val>
            <right_val>1.</right_val></_></_></trees>
      <stage_threshold>1.</stage_threshold>
      <parent>5</parent>
      <next>-1</next></_>
    <_>
      <trees>
        <_>
          <_>
            <feature>
              <rects>
                <_>
                  0 0 8 2 -1.</_>
                <_>
                  4 0 4 2 2.</_></rects>
              <tilted>0</tilted></feature>
            <threshold>-6.6591561771929264e-003</threshold>
            <left_val>-1.</left_val>
            <right_val>0.9999998807907105</right_val></_></_></trees>
      <stage_threshold>0.9999998807907105</stage_threshold>
      <parent>6</parent>
      <next>-1</next></_></stages></PlateDetector>
</opencv_storage>
